digraph Tree {
node [shape=box, fontname="helvetica"] ;
edge [fontname="helvetica"] ;
0 [label="number_of_reviews <= 612.5\ngini = 0.457\nsamples = 18841\nvalue = [12187, 6654]"] ;
1 [label="number_of_reviews <= 238.5\ngini = 0.497\nsamples = 12933\nvalue = [6975, 5958]"] ;
0 -> 1 [labeldistance=2.5, labelangle=45, headlabel="True"] ;
2 [label="number_of_reviews <= 166.0\ngini = 0.333\nsamples = 4256\nvalue = [3359, 897]"] ;
1 -> 2 ;
3 [label="avg_review_score <= 4.36\ngini = 0.234\nsamples = 2538\nvalue = [2195, 343]"] ;
2 -> 3 ;
4 [label="number_of_reviews <= 125.5\ngini = 0.281\nsamples = 1803\nvalue = [1498, 305]"] ;
3 -> 4 ;
5 [label="on_sale <= 0.5\ngini = 0.205\nsamples = 921\nvalue = [814, 107]"] ;
4 -> 5 ;
6 [label="ordered_before <= 0.5\ngini = 0.147\nsamples = 375\nvalue = [345, 30]"] ;
5 -> 6 ;
7 [label="gini = 0.068\nsamples = 114\nvalue = [110, 4]"] ;
6 -> 7 ;
8 [label="number_of_clicks_before <= 3.5\ngini = 0.179\nsamples = 261\nvalue = [235, 26]"] ;
6 -> 8 ;
9 [label="gini = 0.119\nsamples = 142\nvalue = [133, 9]"] ;
8 -> 9 ;
10 [label="gini = 0.245\nsamples = 119\nvalue = [102, 17]"] ;
8 -> 10 ;
11 [label="foot <= 0.5\ngini = 0.242\nsamples = 546\nvalue = [469, 77]"] ;
5 -> 11 ;
12 [label="number_of_reviews <= 86.5\ngini = 0.194\nsamples = 304\nvalue = [271, 33]"] ;
11 -> 12 ;
13 [label="gini = 0.13\nsamples = 143\nvalue = [133, 10]"] ;
12 -> 13 ;
14 [label="gini = 0.245\nsamples = 161\nvalue = [138, 23]"] ;
12 -> 14 ;
15 [label="tools <= 0.5\ngini = 0.298\nsamples = 242\nvalue = [198, 44]"] ;
11 -> 15 ;
16 [label="gini = 0.358\nsamples = 120\nvalue = [92, 28]"] ;
15 -> 16 ;
17 [label="gini = 0.228\nsamples = 122\nvalue = [106, 16]"] ;
15 -> 17 ;
18 [label="ordered_before <= 0.5\ngini = 0.348\nsamples = 882\nvalue = [684, 198]"] ;
4 -> 18 ;
19 [label="men_skincare <= 0.5\ngini = 0.246\nsamples = 272\nvalue = [233, 39]"] ;
18 -> 19 ;
20 [label="gini = 0.202\nsamples = 158\nvalue = [140, 18]"] ;
19 -> 20 ;
21 [label="gini = 0.301\nsamples = 114\nvalue = [93, 21]"] ;
19 -> 21 ;
22 [label="skincare <= 0.5\ngini = 0.385\nsamples = 610\nvalue = [451, 159]"] ;
18 -> 22 ;
23 [label="number_of_reviews <= 145.5\ngini = 0.343\nsamples = 327\nvalue = [255, 72]"] ;
22 -> 23 ;
24 [label="avg_review_score <= 2.358\ngini = 0.304\nsamples = 203\nvalue = [165, 38]"] ;
23 -> 24 ;
25 [label="gini = 0.332\nsamples = 100\nvalue = [79, 21]"] ;
24 -> 25 ;
26 [label="gini = 0.276\nsamples = 103\nvalue = [86, 17]"] ;
24 -> 26 ;
27 [label="gini = 0.398\nsamples = 124\nvalue = [90, 34]"] ;
23 -> 27 ;
28 [label="men_fragrance <= 0.5\ngini = 0.426\nsamples = 283\nvalue = [196, 87]"] ;
22 -> 28 ;
29 [label="gini = 0.377\nsamples = 127\nvalue = [95, 32]"] ;
28 -> 29 ;
30 [label="gini = 0.457\nsamples = 156\nvalue = [101, 55]"] ;
28 -> 30 ;
31 [label="skincare <= 0.5\ngini = 0.098\nsamples = 735\nvalue = [697, 38]"] ;
3 -> 31 ;
32 [label="on_sale <= 0.5\ngini = 0.062\nsamples = 408\nvalue = [395, 13]"] ;
31 -> 32 ;
33 [label="number_of_reviews <= 103.0\ngini = 0.028\nsamples = 211\nvalue = [208, 3]"] ;
32 -> 33 ;
34 [label="gini = 0.018\nsamples = 111\nvalue = [110, 1]"] ;
33 -> 34 ;
35 [label="gini = 0.039\nsamples = 100\nvalue = [98, 2]"] ;
33 -> 35 ;
36 [label="gini = 0.096\nsamples = 197\nvalue = [187, 10]"] ;
32 -> 36 ;
37 [label="ordered_before <= 0.5\ngini = 0.141\nsamples = 327\nvalue = [302, 25]"] ;
31 -> 37 ;
38 [label="gini = 0.073\nsamples = 105\nvalue = [101, 4]"] ;
37 -> 38 ;
39 [label="avg_review_score <= 4.926\ngini = 0.171\nsamples = 222\nvalue = [201, 21]"] ;
37 -> 39 ;
40 [label="gini = 0.212\nsamples = 116\nvalue = [102, 14]"] ;
39 -> 40 ;
41 [label="gini = 0.123\nsamples = 106\nvalue = [99, 7]"] ;
39 -> 41 ;
42 [label="ordered_before <= 0.5\ngini = 0.437\nsamples = 1718\nvalue = [1164, 554]"] ;
2 -> 42 ;
43 [label="tools <= 0.5\ngini = 0.324\nsamples = 521\nvalue = [415, 106]"] ;
42 -> 43 ;
44 [label="avg_review_score <= 3.275\ngini = 0.261\nsamples = 279\nvalue = [236, 43]"] ;
43 -> 44 ;
45 [label="gini = 0.345\nsamples = 122\nvalue = [95, 27]"] ;
44 -> 45 ;
46 [label="gini = 0.183\nsamples = 157\nvalue = [141, 16]"] ;
44 -> 46 ;
47 [label="number_of_reviews <= 197.5\ngini = 0.385\nsamples = 242\nvalue = [179, 63]"] ;
43 -> 47 ;
48 [label="gini = 0.341\nsamples = 110\nvalue = [86, 24]"] ;
47 -> 48 ;
49 [label="gini = 0.416\nsamples = 132\nvalue = [93, 39]"] ;
47 -> 49 ;
50 [label="avg_review_score <= 3.315\ngini = 0.468\nsamples = 1197\nvalue = [749, 448]"] ;
42 -> 50 ;
51 [label="men_fragrance <= 0.5\ngini = 0.493\nsamples = 551\nvalue = [309, 242]"] ;
50 -> 51 ;
52 [label="on_sale <= 0.5\ngini = 0.468\nsamples = 300\nvalue = [188, 112]"] ;
51 -> 52 ;
53 [label="gini = 0.424\nsamples = 108\nvalue = [75, 33]"] ;
52 -> 53 ;
54 [label="gini = 0.484\nsamples = 192\nvalue = [113, 79]"] ;
52 -> 54 ;
55 [label="foot <= 0.5\ngini = 0.499\nsamples = 251\nvalue = [121, 130]"] ;
51 -> 55 ;
56 [label="gini = 0.48\nsamples = 100\nvalue = [40, 60]"] ;
55 -> 56 ;
57 [label="gini = 0.497\nsamples = 151\nvalue = [81, 70]"] ;
55 -> 57 ;
58 [label="men_skincare <= 0.5\ngini = 0.434\nsamples = 646\nvalue = [440, 206]"] ;
50 -> 58 ;
59 [label="on_sale <= 0.5\ngini = 0.396\nsamples = 361\nvalue = [263, 98]"] ;
58 -> 59 ;
60 [label="gini = 0.294\nsamples = 123\nvalue = [101, 22]"] ;
59 -> 60 ;
61 [label="avg_review_score <= 4.223\ngini = 0.435\nsamples = 238\nvalue = [162, 76]"] ;
59 -> 61 ;
62 [label="gini = 0.392\nsamples = 116\nvalue = [85, 31]"] ;
61 -> 62 ;
63 [label="gini = 0.466\nsamples = 122\nvalue = [77, 45]"] ;
61 -> 63 ;
64 [label="number_of_reviews <= 196.5\ngini = 0.471\nsamples = 285\nvalue = [177, 108]"] ;
58 -> 64 ;
65 [label="gini = 0.437\nsamples = 130\nvalue = [88, 42]"] ;
64 -> 65 ;
66 [label="gini = 0.489\nsamples = 155\nvalue = [89, 66]"] ;
64 -> 66 ;
67 [label="number_of_reviews <= 526.5\ngini = 0.486\nsamples = 8677\nvalue = [3616, 5061]"] ;
1 -> 67 ;
68 [label="number_of_reviews <= 312.5\ngini = 0.464\nsamples = 6804\nvalue = [2486, 4318]"] ;
67 -> 68 ;
69 [label="ordered_before <= 0.5\ngini = 0.499\nsamples = 1841\nvalue = [966, 875]"] ;
68 -> 69 ;
70 [label="number_of_reviews <= 285.5\ngini = 0.453\nsamples = 516\nvalue = [337, 179]"] ;
69 -> 70 ;
71 [label="hand <= 0.5\ngini = 0.422\nsamples = 394\nvalue = [275, 119]"] ;
70 -> 71 ;
72 [label="number_of_reviews <= 257.5\ngini = 0.36\nsamples = 204\nvalue = [156, 48]"] ;
71 -> 72 ;
73 [label="gini = 0.401\nsamples = 101\nvalue = [73, 28]"] ;
72 -> 73 ;
74 [label="gini = 0.313\nsamples = 103\nvalue = [83, 20]"] ;
72 -> 74 ;
75 [label="gini = 0.468\nsamples = 190\nvalue = [119, 71]"] ;
71 -> 75 ;
76 [label="gini = 0.5\nsamples = 122\nvalue = [62, 60]"] ;
70 -> 76 ;
77 [label="fragrance <= 0.5\ngini = 0.499\nsamples = 1325\nvalue = [629, 696]"] ;
69 -> 77 ;
78 [label="nail <= 0.5\ngini = 0.499\nsamples = 744\nvalue = [386, 358]"] ;
77 -> 78 ;
79 [label="on_sale <= 0.5\ngini = 0.492\nsamples = 498\nvalue = [280, 218]"] ;
78 -> 79 ;
80 [label="gini = 0.449\nsamples = 179\nvalue = [118, 61]"] ;
79 -> 80 ;
81 [label="number_of_reviews <= 270.5\ngini = 0.5\nsamples = 319\nvalue = [162, 157]"] ;
79 -> 81 ;
82 [label="gini = 0.487\nsamples = 196\nvalue = [114, 82]"] ;
81 -> 82 ;
83 [label="gini = 0.476\nsamples = 123\nvalue = [48, 75]"] ;
81 -> 83 ;
84 [label="foot <= 0.5\ngini = 0.49\nsamples = 246\nvalue = [106, 140]"] ;
78 -> 84 ;
85 [label="gini = 0.471\nsamples = 121\nvalue = [46, 75]"] ;
84 -> 85 ;
86 [label="gini = 0.499\nsamples = 125\nvalue = [60, 65]"] ;
84 -> 86 ;
87 [label="avg_review_score <= 3.788\ngini = 0.487\nsamples = 581\nvalue = [243, 338]"] ;
77 -> 87 ;
88 [label="avg_review_score <= 1.726\ngini = 0.473\nsamples = 372\nvalue = [143, 229]"] ;
87 -> 88 ;
89 [label="gini = 0.5\nsamples = 128\nvalue = [62, 66]"] ;
88 -> 89 ;
90 [label="number_of_reviews <= 265.0\ngini = 0.444\nsamples = 244\nvalue = [81, 163]"] ;
88 -> 90 ;
91 [label="gini = 0.473\nsamples = 104\nvalue = [40, 64]"] ;
90 -> 91 ;
92 [label="gini = 0.414\nsamples = 140\nvalue = [41, 99]"] ;
90 -> 92 ;
93 [label="number_of_reviews <= 256.0\ngini = 0.499\nsamples = 209\nvalue = [100, 109]"] ;
87 -> 93 ;
94 [label="gini = 0.5\nsamples = 107\nvalue = [53, 54]"] ;
93 -> 94 ;
95 [label="gini = 0.497\nsamples = 102\nvalue = [47, 55]"] ;
93 -> 95 ;
96 [label="ordered_before <= 0.5\ngini = 0.425\nsamples = 4963\nvalue = [1520, 3443]"] ;
68 -> 96 ;
97 [label="avg_review_score <= 4.027\ngini = 0.488\nsamples = 1451\nvalue = [611, 840]"] ;
96 -> 97 ;
98 [label="on_sale <= 0.5\ngini = 0.462\nsamples = 921\nvalue = [334, 587]"] ;
97 -> 98 ;
99 [label="number_of_reviews <= 381.5\ngini = 0.5\nsamples = 240\nvalue = [122, 118]"] ;
98 -> 99 ;
100 [label="gini = 0.487\nsamples = 105\nvalue = [61, 44]"] ;
99 -> 100 ;
101 [label="gini = 0.495\nsamples = 135\nvalue = [61, 74]"] ;
99 -> 101 ;
102 [label="number_of_reviews <= 462.0\ngini = 0.429\nsamples = 681\nvalue = [212, 469]"] ;
98 -> 102 ;
103 [label="number_of_reviews <= 359.5\ngini = 0.388\nsamples = 523\nvalue = [138, 385]"] ;
102 -> 103 ;
104 [label="gini = 0.484\nsamples = 100\nvalue = [41, 59]"] ;
103 -> 104 ;
105 [label="number_of_reviews <= 407.0\ngini = 0.353\nsamples = 423\nvalue = [97, 326]"] ;
103 -> 105 ;
106 [label="gini = 0.286\nsamples = 197\nvalue = [34, 163]"] ;
105 -> 106 ;
107 [label="skincare <= 0.5\ngini = 0.402\nsamples = 226\nvalue = [63, 163]"] ;
105 -> 107 ;
108 [label="gini = 0.345\nsamples = 113\nvalue = [25, 88]"] ;
107 -> 108 ;
109 [label="gini = 0.446\nsamples = 113\nvalue = [38, 75]"] ;
107 -> 109 ;
110 [label="gini = 0.498\nsamples = 158\nvalue = [74, 84]"] ;
102 -> 110 ;
111 [label="number_of_reviews <= 351.5\ngini = 0.499\nsamples = 530\nvalue = [277, 253]"] ;
97 -> 111 ;
112 [label="gini = 0.442\nsamples = 100\nvalue = [67, 33]"] ;
111 -> 112 ;
113 [label="number_of_reviews <= 436.5\ngini = 0.5\nsamples = 430\nvalue = [210, 220]"] ;
111 -> 113 ;
114 [label="avg_review_score <= 4.772\ngini = 0.472\nsamples = 217\nvalue = [83, 134]"] ;
113 -> 114 ;
115 [label="gini = 0.493\nsamples = 113\nvalue = [50, 63]"] ;
114 -> 115 ;
116 [label="gini = 0.433\nsamples = 104\nvalue = [33, 71]"] ;
114 -> 116 ;
117 [label="nail <= 0.5\ngini = 0.481\nsamples = 213\nvalue = [127, 86]"] ;
113 -> 117 ;
118 [label="gini = 0.471\nsamples = 113\nvalue = [70, 43]"] ;
117 -> 118 ;
119 [label="gini = 0.49\nsamples = 100\nvalue = [57, 43]"] ;
117 -> 119 ;
120 [label="number_of_reviews <= 460.5\ngini = 0.384\nsamples = 3512\nvalue = [909, 2603]"] ;
96 -> 120 ;
121 [label="number_of_reviews <= 373.5\ngini = 0.352\nsamples = 2566\nvalue = [584, 1982]"] ;
120 -> 121 ;
122 [label="on_sale <= 0.5\ngini = 0.424\nsamples = 1034\nvalue = [315, 719]"] ;
121 -> 122 ;
123 [label="avg_review_score <= 3.371\ngini = 0.474\nsamples = 361\nvalue = [139, 222]"] ;
122 -> 123 ;
124 [label="hand <= 0.5\ngini = 0.442\nsamples = 218\nvalue = [72, 146]"] ;
123 -> 124 ;
125 [label="gini = 0.475\nsamples = 116\nvalue = [45, 71]"] ;
124 -> 125 ;
126 [label="gini = 0.389\nsamples = 102\nvalue = [27, 75]"] ;
124 -> 126 ;
127 [label="gini = 0.498\nsamples = 143\nvalue = [67, 76]"] ;
123 -> 127 ;
128 [label="avg_review_score <= 4.267\ngini = 0.386\nsamples = 673\nvalue = [176, 497]"] ;
122 -> 128 ;
129 [label="men_fragrance <= 0.5\ngini = 0.351\nsamples = 428\nvalue = [97, 331]"] ;
128 -> 129 ;
130 [label="number_of_reviews <= 343.0\ngini = 0.413\nsamples = 247\nvalue = [72, 175]"] ;
129 -> 130 ;
131 [label="gini = 0.383\nsamples = 147\nvalue = [38, 109]"] ;
130 -> 131 ;
132 [label="gini = 0.449\nsamples = 100\nvalue = [34, 66]"] ;
130 -> 132 ;
133 [label="gini = 0.238\nsamples = 181\nvalue = [25, 156]"] ;
129 -> 133 ;
134 [label="fragrance <= 0.5\ngini = 0.437\nsamples = 245\nvalue = [79, 166]"] ;
128 -> 134 ;
135 [label="gini = 0.392\nsamples = 127\nvalue = [34, 93]"] ;
134 -> 135 ;
136 [label="gini = 0.472\nsamples = 118\nvalue = [45, 73]"] ;
134 -> 136 ;
137 [label="on_sale <= 0.5\ngini = 0.29\nsamples = 1532\nvalue = [269, 1263]"] ;
121 -> 137 ;
138 [label="avg_review_score <= 2.74\ngini = 0.37\nsamples = 273\nvalue = [67, 206]"] ;
137 -> 138 ;
139 [label="gini = 0.311\nsamples = 130\nvalue = [25, 105]"] ;
138 -> 139 ;
140 [label="gini = 0.415\nsamples = 143\nvalue = [42, 101]"] ;
138 -> 140 ;
141 [label="avg_review_score <= 4.19\ngini = 0.269\nsamples = 1259\nvalue = [202, 1057]"] ;
137 -> 141 ;
142 [label="cat_makeup <= 0.5\ngini = 0.239\nsamples = 867\nvalue = [120, 747]"] ;
141 -> 142 ;
143 [label="number_of_reviews <= 436.5\ngini = 0.218\nsamples = 681\nvalue = [85, 596]"] ;
142 -> 143 ;
144 [label="men_fragrance <= 0.5\ngini = 0.196\nsamples = 499\nvalue = [55, 444]"] ;
143 -> 144 ;
145 [label="cat_foot <= 0.5\ngini = 0.145\nsamples = 267\nvalue = [21, 246]"] ;
144 -> 145 ;
146 [label="gini = 0.191\nsamples = 159\nvalue = [17, 142]"] ;
145 -> 146 ;
147 [label="gini = 0.071\nsamples = 108\nvalue = [4, 104]"] ;
145 -> 147 ;
148 [label="nail <= 0.5\ngini = 0.25\nsamples = 232\nvalue = [34, 198]"] ;
144 -> 148 ;
149 [label="gini = 0.315\nsamples = 102\nvalue = [20, 82]"] ;
148 -> 149 ;
150 [label="gini = 0.192\nsamples = 130\nvalue = [14, 116]"] ;
148 -> 150 ;
151 [label="gini = 0.275\nsamples = 182\nvalue = [30, 152]"] ;
143 -> 151 ;
152 [label="gini = 0.306\nsamples = 186\nvalue = [35, 151]"] ;
142 -> 152 ;
153 [label="avg_review_score <= 4.999\ngini = 0.331\nsamples = 392\nvalue = [82, 310]"] ;
141 -> 153 ;
154 [label="skincare <= 0.5\ngini = 0.39\nsamples = 234\nvalue = [62, 172]"] ;
153 -> 154 ;
155 [label="gini = 0.426\nsamples = 127\nvalue = [39, 88]"] ;
154 -> 155 ;
156 [label="gini = 0.337\nsamples = 107\nvalue = [23, 84]"] ;
154 -> 156 ;
157 [label="gini = 0.221\nsamples = 158\nvalue = [20, 138]"] ;
153 -> 157 ;
158 [label="avg_review_score <= 3.616\ngini = 0.451\nsamples = 946\nvalue = [325, 621]"] ;
120 -> 158 ;
159 [label="number_of_reviews <= 489.5\ngini = 0.399\nsamples = 512\nvalue = [141, 371]"] ;
158 -> 159 ;
160 [label="tools <= 0.5\ngini = 0.343\nsamples = 218\nvalue = [48, 170]"] ;
159 -> 160 ;
161 [label="gini = 0.377\nsamples = 115\nvalue = [29, 86]"] ;
160 -> 161 ;
162 [label="gini = 0.301\nsamples = 103\nvalue = [19, 84]"] ;
160 -> 162 ;
163 [label="hand <= 0.5\ngini = 0.433\nsamples = 294\nvalue = [93, 201]"] ;
159 -> 163 ;
164 [label="gini = 0.462\nsamples = 171\nvalue = [62, 109]"] ;
163 -> 164 ;
165 [label="gini = 0.377\nsamples = 123\nvalue = [31, 92]"] ;
163 -> 165 ;
166 [label="men_fragrance <= 0.5\ngini = 0.488\nsamples = 434\nvalue = [184, 250]"] ;
158 -> 166 ;
167 [label="hair <= 0.5\ngini = 0.497\nsamples = 240\nvalue = [111, 129]"] ;
166 -> 167 ;
168 [label="gini = 0.5\nsamples = 137\nvalue = [69, 68]"] ;
167 -> 168 ;
169 [label="gini = 0.483\nsamples = 103\nvalue = [42, 61]"] ;
167 -> 169 ;
170 [label="gini = 0.469\nsamples = 194\nvalue = [73, 121]"] ;
166 -> 170 ;
171 [label="ordered_before <= 0.5\ngini = 0.479\nsamples = 1873\nvalue = [1130, 743]"] ;
67 -> 171 ;
172 [label="avg_review_score <= 3.707\ngini = 0.384\nsamples = 568\nvalue = [421, 147]"] ;
171 -> 172 ;
173 [label="fragrance <= 0.5\ngini = 0.437\nsamples = 322\nvalue = [218, 104]"] ;
172 -> 173 ;
174 [label="gini = 0.388\nsamples = 167\nvalue = [123, 44]"] ;
173 -> 174 ;
175 [label="gini = 0.475\nsamples = 155\nvalue = [95, 60]"] ;
173 -> 175 ;
176 [label="men_skincare <= 0.5\ngini = 0.288\nsamples = 246\nvalue = [203, 43]"] ;
172 -> 176 ;
177 [label="gini = 0.238\nsamples = 116\nvalue = [100, 16]"] ;
176 -> 177 ;
178 [label="gini = 0.329\nsamples = 130\nvalue = [103, 27]"] ;
176 -> 178 ;
179 [label="on_sale <= 0.5\ngini = 0.496\nsamples = 1305\nvalue = [709, 596]"] ;
171 -> 179 ;
180 [label="avg_review_score <= 3.615\ngini = 0.467\nsamples = 447\nvalue = [281, 166]"] ;
179 -> 180 ;
181 [label="number_of_reviews <= 572.5\ngini = 0.491\nsamples = 217\nvalue = [123, 94]"] ;
180 -> 181 ;
182 [label="gini = 0.5\nsamples = 101\nvalue = [51, 50]"] ;
181 -> 182 ;
183 [label="gini = 0.471\nsamples = 116\nvalue = [72, 44]"] ;
181 -> 183 ;
184 [label="number_of_reviews <= 564.5\ngini = 0.43\nsamples = 230\nvalue = [158, 72]"] ;
180 -> 184 ;
185 [label="gini = 0.479\nsamples = 121\nvalue = [73, 48]"] ;
184 -> 185 ;
186 [label="gini = 0.343\nsamples = 109\nvalue = [85, 24]"] ;
184 -> 186 ;
187 [label="number_of_reviews <= 595.5\ngini = 0.5\nsamples = 858\nvalue = [428, 430]"] ;
179 -> 187 ;
188 [label="cat_makeup <= 0.5\ngini = 0.498\nsamples = 675\nvalue = [316, 359]"] ;
187 -> 188 ;
189 [label="body <= 0.5\ngini = 0.5\nsamples = 538\nvalue = [272, 266]"] ;
188 -> 189 ;
190 [label="avg_review_score <= 3.623\ngini = 0.493\nsamples = 288\nvalue = [161, 127]"] ;
189 -> 190 ;
191 [label="gini = 0.5\nsamples = 154\nvalue = [79, 75]"] ;
190 -> 191 ;
192 [label="gini = 0.475\nsamples = 134\nvalue = [82, 52]"] ;
190 -> 192 ;
193 [label="fragrance <= 0.5\ngini = 0.494\nsamples = 250\nvalue = [111, 139]"] ;
189 -> 193 ;
194 [label="gini = 0.456\nsamples = 105\nvalue = [37, 68]"] ;
193 -> 194 ;
195 [label="gini = 0.5\nsamples = 145\nvalue = [74, 71]"] ;
193 -> 195 ;
196 [label="gini = 0.436\nsamples = 137\nvalue = [44, 93]"] ;
188 -> 196 ;
197 [label="gini = 0.475\nsamples = 183\nvalue = [112, 71]"] ;
187 -> 197 ;
198 [label="number_of_reviews <= 733.5\ngini = 0.208\nsamples = 5908\nvalue = [5212, 696]"] ;
0 -> 198 [labeldistance=2.5, labelangle=-45, headlabel="False"] ;
199 [label="ordered_before <= 0.5\ngini = 0.294\nsamples = 2764\nvalue = [2268, 496]"] ;
198 -> 199 ;
200 [label="body <= 0.5\ngini = 0.173\nsamples = 837\nvalue = [757, 80]"] ;
199 -> 200 ;
201 [label="number_of_reviews <= 681.5\ngini = 0.119\nsamples = 474\nvalue = [444, 30]"] ;
200 -> 201 ;
202 [label="avg_review_score <= 2.913\ngini = 0.169\nsamples = 257\nvalue = [233, 24]"] ;
201 -> 202 ;
203 [label="gini = 0.211\nsamples = 125\nvalue = [110, 15]"] ;
202 -> 203 ;
204 [label="gini = 0.127\nsamples = 132\nvalue = [123, 9]"] ;
202 -> 204 ;
205 [label="avg_review_score <= 3.065\ngini = 0.054\nsamples = 217\nvalue = [211, 6]"] ;
201 -> 205 ;
206 [label="gini = 0.075\nsamples = 103\nvalue = [99, 4]"] ;
205 -> 206 ;
207 [label="gini = 0.034\nsamples = 114\nvalue = [112, 2]"] ;
205 -> 207 ;
208 [label="number_of_reviews <= 652.5\ngini = 0.238\nsamples = 363\nvalue = [313, 50]"] ;
200 -> 208 ;
209 [label="gini = 0.325\nsamples = 103\nvalue = [82, 21]"] ;
208 -> 209 ;
210 [label="makeup <= 0.5\ngini = 0.198\nsamples = 260\nvalue = [231, 29]"] ;
208 -> 210 ;
211 [label="gini = 0.137\nsamples = 108\nvalue = [100, 8]"] ;
210 -> 211 ;
212 [label="gini = 0.238\nsamples = 152\nvalue = [131, 21]"] ;
210 -> 212 ;
213 [label="avg_review_score <= 4.171\ngini = 0.339\nsamples = 1927\nvalue = [1511, 416]"] ;
199 -> 213 ;
214 [label="on_sale <= 0.5\ngini = 0.362\nsamples = 1504\nvalue = [1147, 357]"] ;
213 -> 214 ;
215 [label="number_of_clicks_before <= 2.5\ngini = 0.287\nsamples = 495\nvalue = [409, 86]"] ;
214 -> 215 ;
216 [label="number_of_reviews <= 672.5\ngini = 0.34\nsamples = 281\nvalue = [220, 61]"] ;
215 -> 216 ;
217 [label="gini = 0.384\nsamples = 135\nvalue = [100, 35]"] ;
216 -> 217 ;
218 [label="gini = 0.293\nsamples = 146\nvalue = [120, 26]"] ;
216 -> 218 ;
219 [label="men_skincare <= 0.5\ngini = 0.206\nsamples = 214\nvalue = [189, 25]"] ;
215 -> 219 ;
220 [label="gini = 0.254\nsamples = 114\nvalue = [97, 17]"] ;
219 -> 220 ;
221 [label="gini = 0.147\nsamples = 100\nvalue = [92, 8]"] ;
219 -> 221 ;
222 [label="avg_review_score <= 1.723\ngini = 0.393\nsamples = 1009\nvalue = [738, 271]"] ;
214 -> 222 ;
223 [label="number_of_reviews <= 659.0\ngini = 0.311\nsamples = 234\nvalue = [189, 45]"] ;
222 -> 223 ;
224 [label="gini = 0.265\nsamples = 102\nvalue = [86, 16]"] ;
223 -> 224 ;
225 [label="gini = 0.343\nsamples = 132\nvalue = [103, 29]"] ;
223 -> 225 ;
226 [label="number_of_reviews <= 637.5\ngini = 0.413\nsamples = 775\nvalue = [549, 226]"] ;
222 -> 226 ;
227 [label="gini = 0.476\nsamples = 133\nvalue = [81, 52]"] ;
226 -> 227 ;
228 [label="avg_review_score <= 3.501\ngini = 0.395\nsamples = 642\nvalue = [468, 174]"] ;
226 -> 228 ;
229 [label="avg_review_score <= 2.476\ngini = 0.42\nsamples = 426\nvalue = [298, 128]"] ;
228 -> 229 ;
230 [label="gini = 0.386\nsamples = 199\nvalue = [147, 52]"] ;
229 -> 230 ;
231 [label="tools <= 0.5\ngini = 0.445\nsamples = 227\nvalue = [151, 76]"] ;
229 -> 231 ;
232 [label="gini = 0.417\nsamples = 125\nvalue = [88, 37]"] ;
231 -> 232 ;
233 [label="gini = 0.472\nsamples = 102\nvalue = [63, 39]"] ;
231 -> 233 ;
234 [label="number_of_reviews <= 696.5\ngini = 0.335\nsamples = 216\nvalue = [170, 46]"] ;
228 -> 234 ;
235 [label="gini = 0.392\nsamples = 112\nvalue = [82, 30]"] ;
234 -> 235 ;
236 [label="gini = 0.26\nsamples = 104\nvalue = [88, 16]"] ;
234 -> 236 ;
237 [label="number_of_reviews <= 665.5\ngini = 0.24\nsamples = 423\nvalue = [364, 59]"] ;
213 -> 237 ;
238 [label="gini = 0.31\nsamples = 141\nvalue = [114, 27]"] ;
237 -> 238 ;
239 [label="avg_review_score <= 4.738\ngini = 0.201\nsamples = 282\nvalue = [250, 32]"] ;
237 -> 239 ;
240 [label="gini = 0.284\nsamples = 111\nvalue = [92, 19]"] ;
239 -> 240 ;
241 [label="gini = 0.14\nsamples = 171\nvalue = [158, 13]"] ;
239 -> 241 ;
242 [label="ordered_before <= 0.5\ngini = 0.119\nsamples = 3144\nvalue = [2944, 200]"] ;
198 -> 242 ;
243 [label="avg_review_score <= 1.677\ngini = 0.051\nsamples = 920\nvalue = [896, 24]"] ;
242 -> 243 ;
244 [label="gini = 0.154\nsamples = 155\nvalue = [142, 13]"] ;
243 -> 244 ;
245 [label="avg_review_score <= 3.749\ngini = 0.028\nsamples = 765\nvalue = [754, 11]"] ;
243 -> 245 ;
246 [label="men_fragrance <= 0.5\ngini = 0.053\nsamples = 367\nvalue = [357, 10]"] ;
245 -> 246 ;
247 [label="avg_review_score <= 2.5\ngini = 0.075\nsamples = 205\nvalue = [197, 8]"] ;
246 -> 247 ;
248 [label="gini = 0.077\nsamples = 100\nvalue = [96, 4]"] ;
247 -> 248 ;
249 [label="gini = 0.073\nsamples = 105\nvalue = [101, 4]"] ;
247 -> 249 ;
250 [label="gini = 0.024\nsamples = 162\nvalue = [160, 2]"] ;
246 -> 250 ;
251 [label="avg_review_score <= 4.983\ngini = 0.005\nsamples = 398\nvalue = [397, 1]"] ;
245 -> 251 ;
252 [label="gini = 0.0\nsamples = 260\nvalue = [260, 0]"] ;
251 -> 252 ;
253 [label="gini = 0.014\nsamples = 138\nvalue = [137, 1]"] ;
251 -> 253 ;
254 [label="on_sale <= 0.5\ngini = 0.146\nsamples = 2224\nvalue = [2048, 176]"] ;
242 -> 254 ;
255 [label="number_of_reviews <= 771.5\ngini = 0.083\nsamples = 872\nvalue = [834, 38]"] ;
254 -> 255 ;
256 [label="foot <= 0.5\ngini = 0.134\nsamples = 276\nvalue = [256, 20]"] ;
255 -> 256 ;
257 [label="gini = 0.175\nsamples = 134\nvalue = [121, 13]"] ;
256 -> 257 ;
258 [label="gini = 0.094\nsamples = 142\nvalue = [135, 7]"] ;
256 -> 258 ;
259 [label="skincare <= 0.5\ngini = 0.059\nsamples = 596\nvalue = [578, 18]"] ;
255 -> 259 ;
260 [label="body <= 0.5\ngini = 0.03\nsamples = 326\nvalue = [321, 5]"] ;
259 -> 260 ;
261 [label="avg_review_score <= 3.703\ngini = 0.01\nsamples = 207\nvalue = [206, 1]"] ;
260 -> 261 ;
262 [label="gini = 0.02\nsamples = 100\nvalue = [99, 1]"] ;
261 -> 262 ;
263 [label="gini = 0.0\nsamples = 107\nvalue = [107, 0]"] ;
261 -> 263 ;
264 [label="gini = 0.065\nsamples = 119\nvalue = [115, 4]"] ;
260 -> 264 ;
265 [label="nail <= 0.5\ngini = 0.092\nsamples = 270\nvalue = [257, 13]"] ;
259 -> 265 ;
266 [label="gini = 0.141\nsamples = 118\nvalue = [109, 9]"] ;
265 -> 266 ;
267 [label="gini = 0.051\nsamples = 152\nvalue = [148, 4]"] ;
265 -> 267 ;
268 [label="number_of_reviews <= 758.5\ngini = 0.183\nsamples = 1352\nvalue = [1214, 138]"] ;
254 -> 268 ;
269 [label="nail <= 0.5\ngini = 0.271\nsamples = 229\nvalue = [192, 37]"] ;
268 -> 269 ;
270 [label="gini = 0.196\nsamples = 127\nvalue = [113, 14]"] ;
269 -> 270 ;
271 [label="gini = 0.349\nsamples = 102\nvalue = [79, 23]"] ;
269 -> 271 ;
272 [label="avg_review_score <= 3.836\ngini = 0.164\nsamples = 1123\nvalue = [1022, 101]"] ;
268 -> 272 ;
273 [label="number_of_reviews <= 815.5\ngini = 0.189\nsamples = 671\nvalue = [600, 71]"] ;
272 -> 273 ;
274 [label="number_of_reviews <= 805.0\ngini = 0.238\nsamples = 340\nvalue = [293, 47]"] ;
273 -> 274 ;
275 [label="nail <= 0.5\ngini = 0.173\nsamples = 219\nvalue = [198, 21]"] ;
274 -> 275 ;
276 [label="gini = 0.198\nsamples = 117\nvalue = [104, 13]"] ;
275 -> 276 ;
277 [label="gini = 0.145\nsamples = 102\nvalue = [94, 8]"] ;
275 -> 277 ;
278 [label="gini = 0.337\nsamples = 121\nvalue = [95, 26]"] ;
274 -> 278 ;
279 [label="men_skincare <= 0.5\ngini = 0.135\nsamples = 331\nvalue = [307, 24]"] ;
273 -> 279 ;
280 [label="gini = 0.083\nsamples = 184\nvalue = [176, 8]"] ;
279 -> 280 ;
281 [label="gini = 0.194\nsamples = 147\nvalue = [131, 16]"] ;
279 -> 281 ;
282 [label="number_of_clicks_before <= 4.5\ngini = 0.124\nsamples = 452\nvalue = [422, 30]"] ;
272 -> 282 ;
283 [label="number_of_reviews <= 820.5\ngini = 0.103\nsamples = 295\nvalue = [279, 16]"] ;
282 -> 283 ;
284 [label="gini = 0.059\nsamples = 165\nvalue = [160, 5]"] ;
283 -> 284 ;
285 [label="gini = 0.155\nsamples = 130\nvalue = [119, 11]"] ;
283 -> 285 ;
286 [label="gini = 0.162\nsamples = 157\nvalue = [143, 14]"] ;
282 -> 286 ;
}
