digraph Tree {
node [shape=box, fontname="helvetica"] ;
edge [fontname="helvetica"] ;
0 [label="number_of_reviews <= 625.0\ngini = 0.455\nsamples = 18841\nvalue = [12243, 6598]"] ;
1 [label="number_of_reviews <= 238.5\ngini = 0.496\nsamples = 13176\nvalue = [7166, 6010]"] ;
0 -> 1 [labeldistance=2.5, labelangle=45, headlabel="True"] ;
2 [label="number_of_reviews <= 164.0\ngini = 0.329\nsamples = 4265\nvalue = [3378, 887]"] ;
1 -> 2 ;
3 [label="number_of_reviews <= 124.5\ngini = 0.221\nsamples = 2449\nvalue = [2139, 310]"] ;
2 -> 3 ;
4 [label="cat_body <= 0.5\ngini = 0.158\nsamples = 1408\nvalue = [1286, 122]"] ;
3 -> 4 ;
5 [label="ordered_before <= 0.5\ngini = 0.142\nsamples = 1278\nvalue = [1180, 98]"] ;
4 -> 5 ;
6 [label="on_sale <= 0.5\ngini = 0.07\nsamples = 387\nvalue = [373, 14]"] ;
5 -> 6 ;
7 [label="gini = 0.011\nsamples = 180\nvalue = [179, 1]"] ;
6 -> 7 ;
8 [label="avg_review_score <= 3.379\ngini = 0.118\nsamples = 207\nvalue = [194, 13]"] ;
6 -> 8 ;
9 [label="gini = 0.058\nsamples = 101\nvalue = [98, 3]"] ;
8 -> 9 ;
10 [label="gini = 0.171\nsamples = 106\nvalue = [96, 10]"] ;
8 -> 10 ;
11 [label="avg_review_score <= 3.43\ngini = 0.171\nsamples = 891\nvalue = [807, 84]"] ;
5 -> 11 ;
12 [label="foot <= 0.5\ngini = 0.225\nsamples = 434\nvalue = [378, 56]"] ;
11 -> 12 ;
13 [label="number_of_reviews <= 89.0\ngini = 0.176\nsamples = 216\nvalue = [195, 21]"] ;
12 -> 13 ;
14 [label="gini = 0.091\nsamples = 105\nvalue = [100, 5]"] ;
13 -> 14 ;
15 [label="gini = 0.247\nsamples = 111\nvalue = [95, 16]"] ;
13 -> 15 ;
16 [label="tools <= 0.5\ngini = 0.27\nsamples = 218\nvalue = [183, 35]"] ;
12 -> 16 ;
17 [label="gini = 0.315\nsamples = 102\nvalue = [82, 20]"] ;
16 -> 17 ;
18 [label="gini = 0.225\nsamples = 116\nvalue = [101, 15]"] ;
16 -> 18 ;
19 [label="skincare <= 0.5\ngini = 0.115\nsamples = 457\nvalue = [429, 28]"] ;
11 -> 19 ;
20 [label="on_sale <= 0.5\ngini = 0.071\nsamples = 244\nvalue = [235, 9]"] ;
19 -> 20 ;
21 [label="gini = 0.016\nsamples = 127\nvalue = [126, 1]"] ;
20 -> 21 ;
22 [label="gini = 0.127\nsamples = 117\nvalue = [109, 8]"] ;
20 -> 22 ;
23 [label="avg_review_score <= 4.699\ngini = 0.162\nsamples = 213\nvalue = [194, 19]"] ;
19 -> 23 ;
24 [label="gini = 0.193\nsamples = 111\nvalue = [99, 12]"] ;
23 -> 24 ;
25 [label="gini = 0.128\nsamples = 102\nvalue = [95, 7]"] ;
23 -> 25 ;
26 [label="gini = 0.301\nsamples = 130\nvalue = [106, 24]"] ;
4 -> 26 ;
27 [label="ordered_before <= 0.5\ngini = 0.296\nsamples = 1041\nvalue = [853, 188]"] ;
3 -> 27 ;
28 [label="body <= 0.5\ngini = 0.164\nsamples = 321\nvalue = [292, 29]"] ;
27 -> 28 ;
29 [label="gini = 0.121\nsamples = 170\nvalue = [159, 11]"] ;
28 -> 29 ;
30 [label="gini = 0.21\nsamples = 151\nvalue = [133, 18]"] ;
28 -> 30 ;
31 [label="avg_review_score <= 3.918\ngini = 0.344\nsamples = 720\nvalue = [561, 159]"] ;
27 -> 31 ;
32 [label="on_sale <= 0.5\ngini = 0.386\nsamples = 494\nvalue = [365, 129]"] ;
31 -> 32 ;
33 [label="gini = 0.311\nsamples = 182\nvalue = [147, 35]"] ;
32 -> 33 ;
34 [label="number_of_clicks_before <= 3.5\ngini = 0.421\nsamples = 312\nvalue = [218, 94]"] ;
32 -> 34 ;
35 [label="gini = 0.456\nsamples = 179\nvalue = [116, 63]"] ;
34 -> 35 ;
36 [label="gini = 0.358\nsamples = 133\nvalue = [102, 31]"] ;
34 -> 36 ;
37 [label="foot <= 0.5\ngini = 0.23\nsamples = 226\nvalue = [196, 30]"] ;
31 -> 37 ;
38 [label="gini = 0.185\nsamples = 126\nvalue = [113, 13]"] ;
37 -> 38 ;
39 [label="gini = 0.282\nsamples = 100\nvalue = [83, 17]"] ;
37 -> 39 ;
40 [label="ordered_before <= 0.5\ngini = 0.434\nsamples = 1816\nvalue = [1239, 577]"] ;
2 -> 40 ;
41 [label="tools <= 0.5\ngini = 0.319\nsamples = 557\nvalue = [446, 111]"] ;
40 -> 41 ;
42 [label="hair <= 0.5\ngini = 0.264\nsamples = 326\nvalue = [275, 51]"] ;
41 -> 42 ;
43 [label="avg_review_score <= 3.38\ngini = 0.319\nsamples = 211\nvalue = [169, 42]"] ;
42 -> 43 ;
44 [label="gini = 0.365\nsamples = 104\nvalue = [79, 25]"] ;
43 -> 44 ;
45 [label="gini = 0.267\nsamples = 107\nvalue = [90, 17]"] ;
43 -> 45 ;
46 [label="gini = 0.144\nsamples = 115\nvalue = [106, 9]"] ;
42 -> 46 ;
47 [label="avg_review_score <= 3.315\ngini = 0.385\nsamples = 231\nvalue = [171, 60]"] ;
41 -> 47 ;
48 [label="gini = 0.428\nsamples = 103\nvalue = [71, 32]"] ;
47 -> 48 ;
49 [label="gini = 0.342\nsamples = 128\nvalue = [100, 28]"] ;
47 -> 49 ;
50 [label="avg_review_score <= 3.241\ngini = 0.466\nsamples = 1259\nvalue = [793, 466]"] ;
40 -> 50 ;
51 [label="fragrance <= 0.5\ngini = 0.491\nsamples = 543\nvalue = [307, 236]"] ;
50 -> 51 ;
52 [label="skincare <= 0.5\ngini = 0.476\nsamples = 300\nvalue = [183, 117]"] ;
51 -> 52 ;
53 [label="gini = 0.448\nsamples = 195\nvalue = [129, 66]"] ;
52 -> 53 ;
54 [label="gini = 0.5\nsamples = 105\nvalue = [54, 51]"] ;
52 -> 54 ;
55 [label="number_of_reviews <= 205.5\ngini = 0.5\nsamples = 243\nvalue = [124, 119]"] ;
51 -> 55 ;
56 [label="gini = 0.494\nsamples = 143\nvalue = [79, 64]"] ;
55 -> 56 ;
57 [label="gini = 0.495\nsamples = 100\nvalue = [45, 55]"] ;
55 -> 57 ;
58 [label="men_fragrance <= 0.5\ngini = 0.436\nsamples = 716\nvalue = [486, 230]"] ;
50 -> 58 ;
59 [label="number_of_reviews <= 212.5\ngini = 0.388\nsamples = 387\nvalue = [285, 102]"] ;
58 -> 59 ;
60 [label="avg_review_score <= 4.235\ngini = 0.355\nsamples = 247\nvalue = [190, 57]"] ;
59 -> 60 ;
61 [label="gini = 0.314\nsamples = 128\nvalue = [103, 25]"] ;
60 -> 61 ;
62 [label="gini = 0.393\nsamples = 119\nvalue = [87, 32]"] ;
60 -> 62 ;
63 [label="gini = 0.436\nsamples = 140\nvalue = [95, 45]"] ;
59 -> 63 ;
64 [label="number_of_reviews <= 192.5\ngini = 0.475\nsamples = 329\nvalue = [201, 128]"] ;
58 -> 64 ;
65 [label="gini = 0.435\nsamples = 144\nvalue = [98, 46]"] ;
64 -> 65 ;
66 [label="gini = 0.494\nsamples = 185\nvalue = [103, 82]"] ;
64 -> 66 ;
67 [label="number_of_reviews <= 532.0\ngini = 0.489\nsamples = 8911\nvalue = [3788, 5123]"] ;
1 -> 67 ;
68 [label="number_of_reviews <= 312.5\ngini = 0.467\nsamples = 6874\nvalue = [2549, 4325]"] ;
67 -> 68 ;
69 [label="ordered_before <= 0.5\ngini = 0.498\nsamples = 1843\nvalue = [973, 870]"] ;
68 -> 69 ;
70 [label="number_of_reviews <= 281.5\ngini = 0.444\nsamples = 536\nvalue = [358, 178]"] ;
69 -> 70 ;
71 [label="hand <= 0.5\ngini = 0.412\nsamples = 382\nvalue = [271, 111]"] ;
70 -> 71 ;
72 [label="gini = 0.357\nsamples = 198\nvalue = [152, 46]"] ;
71 -> 72 ;
73 [label="gini = 0.457\nsamples = 184\nvalue = [119, 65]"] ;
71 -> 73 ;
74 [label="gini = 0.492\nsamples = 154\nvalue = [87, 67]"] ;
70 -> 74 ;
75 [label="avg_review_score <= 3.762\ngini = 0.498\nsamples = 1307\nvalue = [615, 692]"] ;
69 -> 75 ;
76 [label="on_sale <= 0.5\ngini = 0.488\nsamples = 809\nvalue = [342, 467]"] ;
75 -> 76 ;
77 [label="fragrance <= 0.5\ngini = 0.5\nsamples = 337\nvalue = [169, 168]"] ;
76 -> 77 ;
78 [label="gini = 0.489\nsamples = 186\nvalue = [107, 79]"] ;
77 -> 78 ;
79 [label="gini = 0.484\nsamples = 151\nvalue = [62, 89]"] ;
77 -> 79 ;
80 [label="number_of_reviews <= 268.5\ngini = 0.464\nsamples = 472\nvalue = [173, 299]"] ;
76 -> 80 ;
81 [label="avg_review_score <= 2.837\ngini = 0.49\nsamples = 212\nvalue = [91, 121]"] ;
80 -> 81 ;
82 [label="gini = 0.5\nsamples = 111\nvalue = [54, 57]"] ;
81 -> 82 ;
83 [label="gini = 0.464\nsamples = 101\nvalue = [37, 64]"] ;
81 -> 83 ;
84 [label="foot <= 0.5\ngini = 0.432\nsamples = 260\nvalue = [82, 178]"] ;
80 -> 84 ;
85 [label="gini = 0.394\nsamples = 137\nvalue = [37, 100]"] ;
84 -> 85 ;
86 [label="gini = 0.464\nsamples = 123\nvalue = [45, 78]"] ;
84 -> 86 ;
87 [label="avg_review_score <= 4.995\ngini = 0.495\nsamples = 498\nvalue = [273, 225]"] ;
75 -> 87 ;
88 [label="avg_review_score <= 4.359\ngini = 0.5\nsamples = 301\nvalue = [153, 148]"] ;
87 -> 88 ;
89 [label="gini = 0.496\nsamples = 190\nvalue = [104, 86]"] ;
88 -> 89 ;
90 [label="gini = 0.493\nsamples = 111\nvalue = [49, 62]"] ;
88 -> 90 ;
91 [label="gini = 0.476\nsamples = 197\nvalue = [120, 77]"] ;
87 -> 91 ;
92 [label="ordered_before <= 0.5\ngini = 0.43\nsamples = 5031\nvalue = [1576, 3455]"] ;
68 -> 92 ;
93 [label="on_sale <= 0.5\ngini = 0.488\nsamples = 1501\nvalue = [634, 867]"] ;
92 -> 93 ;
94 [label="avg_review_score <= 3.283\ngini = 0.495\nsamples = 367\nvalue = [201, 166]"] ;
93 -> 94 ;
95 [label="gini = 0.497\nsamples = 185\nvalue = [85, 100]"] ;
94 -> 95 ;
96 [label="gini = 0.462\nsamples = 182\nvalue = [116, 66]"] ;
94 -> 96 ;
97 [label="number_of_reviews <= 479.5\ngini = 0.472\nsamples = 1134\nvalue = [433, 701]"] ;
93 -> 97 ;
98 [label="avg_review_score <= 3.857\ngini = 0.451\nsamples = 901\nvalue = [310, 591]"] ;
97 -> 98 ;
99 [label="number_of_reviews <= 359.5\ngini = 0.409\nsamples = 573\nvalue = [164, 409]"] ;
98 -> 99 ;
100 [label="gini = 0.493\nsamples = 107\nvalue = [47, 60]"] ;
99 -> 100 ;
101 [label="number_of_reviews <= 408.5\ngini = 0.376\nsamples = 466\nvalue = [117, 349]"] ;
99 -> 101 ;
102 [label="gini = 0.285\nsamples = 186\nvalue = [32, 154]"] ;
101 -> 102 ;
103 [label="skincare <= 0.5\ngini = 0.423\nsamples = 280\nvalue = [85, 195]"] ;
101 -> 103 ;
104 [label="gini = 0.377\nsamples = 143\nvalue = [36, 107]"] ;
103 -> 104 ;
105 [label="gini = 0.459\nsamples = 137\nvalue = [49, 88]"] ;
103 -> 105 ;
106 [label="avg_review_score <= 4.315\ngini = 0.494\nsamples = 328\nvalue = [146, 182]"] ;
98 -> 106 ;
107 [label="gini = 0.499\nsamples = 112\nvalue = [58, 54]"] ;
106 -> 107 ;
108 [label="number_of_reviews <= 402.5\ngini = 0.483\nsamples = 216\nvalue = [88, 128]"] ;
106 -> 108 ;
109 [label="gini = 0.492\nsamples = 108\nvalue = [47, 61]"] ;
108 -> 109 ;
110 [label="gini = 0.471\nsamples = 108\nvalue = [41, 67]"] ;
108 -> 110 ;
111 [label="nail <= 0.5\ngini = 0.498\nsamples = 233\nvalue = [123, 110]"] ;
97 -> 111 ;
112 [label="gini = 0.489\nsamples = 122\nvalue = [70, 52]"] ;
111 -> 112 ;
113 [label="gini = 0.499\nsamples = 111\nvalue = [53, 58]"] ;
111 -> 113 ;
114 [label="on_sale <= 0.5\ngini = 0.391\nsamples = 3530\nvalue = [942, 2588]"] ;
92 -> 114 ;
115 [label="avg_review_score <= 3.316\ngini = 0.459\nsamples = 920\nvalue = [328, 592]"] ;
114 -> 115 ;
116 [label="nail <= 0.5\ngini = 0.418\nsamples = 484\nvalue = [144, 340]"] ;
115 -> 116 ;
117 [label="fragrance <= 0.5\ngini = 0.461\nsamples = 269\nvalue = [97, 172]"] ;
116 -> 117 ;
118 [label="gini = 0.483\nsamples = 169\nvalue = [69, 100]"] ;
117 -> 118 ;
119 [label="gini = 0.403\nsamples = 100\nvalue = [28, 72]"] ;
117 -> 119 ;
120 [label="avg_review_score <= 2.371\ngini = 0.342\nsamples = 215\nvalue = [47, 168]"] ;
116 -> 120 ;
121 [label="gini = 0.38\nsamples = 106\nvalue = [27, 79]"] ;
120 -> 121 ;
122 [label="gini = 0.3\nsamples = 109\nvalue = [20, 89]"] ;
120 -> 122 ;
123 [label="avg_review_score <= 4.201\ngini = 0.488\nsamples = 436\nvalue = [184, 252]"] ;
115 -> 123 ;
124 [label="gini = 0.5\nsamples = 133\nvalue = [66, 67]"] ;
123 -> 124 ;
125 [label="makeup <= 0.5\ngini = 0.476\nsamples = 303\nvalue = [118, 185]"] ;
123 -> 125 ;
126 [label="gini = 0.496\nsamples = 158\nvalue = [72, 86]"] ;
125 -> 126 ;
127 [label="gini = 0.433\nsamples = 145\nvalue = [46, 99]"] ;
125 -> 127 ;
128 [label="avg_review_score <= 4.267\ngini = 0.36\nsamples = 2610\nvalue = [614, 1996]"] ;
114 -> 128 ;
129 [label="number_of_reviews <= 466.0\ngini = 0.319\nsamples = 1822\nvalue = [363, 1459]"] ;
128 -> 129 ;
130 [label="number_of_reviews <= 327.5\ngini = 0.281\nsamples = 1310\nvalue = [222, 1088]"] ;
129 -> 130 ;
131 [label="gini = 0.38\nsamples = 141\nvalue = [36, 105]"] ;
130 -> 131 ;
132 [label="avg_review_score <= 1.431\ngini = 0.268\nsamples = 1169\nvalue = [186, 983]"] ;
130 -> 132 ;
133 [label="gini = 0.359\nsamples = 145\nvalue = [34, 111]"] ;
132 -> 133 ;
134 [label="number_of_reviews <= 434.5\ngini = 0.253\nsamples = 1024\nvalue = [152, 872]"] ;
132 -> 134 ;
135 [label="avg_review_score <= 3.646\ngini = 0.228\nsamples = 730\nvalue = [96, 634]"] ;
134 -> 135 ;
136 [label="number_of_clicks_before <= 1.5\ngini = 0.204\nsamples = 589\nvalue = [68, 521]"] ;
135 -> 136 ;
137 [label="gini = 0.268\nsamples = 176\nvalue = [28, 148]"] ;
136 -> 137 ;
138 [label="skincare <= 0.5\ngini = 0.175\nsamples = 413\nvalue = [40, 373]"] ;
136 -> 138 ;
139 [label="number_of_reviews <= 396.5\ngini = 0.208\nsamples = 220\nvalue = [26, 194]"] ;
138 -> 139 ;
140 [label="gini = 0.249\nsamples = 103\nvalue = [15, 88]"] ;
139 -> 140 ;
141 [label="gini = 0.17\nsamples = 117\nvalue = [11, 106]"] ;
139 -> 141 ;
142 [label="gini = 0.135\nsamples = 193\nvalue = [14, 179]"] ;
138 -> 142 ;
143 [label="gini = 0.318\nsamples = 141\nvalue = [28, 113]"] ;
135 -> 143 ;
144 [label="avg_review_score <= 3.551\ngini = 0.308\nsamples = 294\nvalue = [56, 238]"] ;
134 -> 144 ;
145 [label="gini = 0.339\nsamples = 185\nvalue = [40, 145]"] ;
144 -> 145 ;
146 [label="gini = 0.25\nsamples = 109\nvalue = [16, 93]"] ;
144 -> 146 ;
147 [label="tools <= 0.5\ngini = 0.399\nsamples = 512\nvalue = [141, 371]"] ;
129 -> 147 ;
148 [label="number_of_reviews <= 504.5\ngini = 0.429\nsamples = 283\nvalue = [88, 195]"] ;
147 -> 148 ;
149 [label="gini = 0.454\nsamples = 178\nvalue = [62, 116]"] ;
148 -> 149 ;
150 [label="gini = 0.373\nsamples = 105\nvalue = [26, 79]"] ;
148 -> 150 ;
151 [label="number_of_reviews <= 484.5\ngini = 0.356\nsamples = 229\nvalue = [53, 176]"] ;
147 -> 151 ;
152 [label="gini = 0.313\nsamples = 103\nvalue = [20, 83]"] ;
151 -> 152 ;
153 [label="gini = 0.387\nsamples = 126\nvalue = [33, 93]"] ;
151 -> 153 ;
154 [label="number_of_reviews <= 447.0\ngini = 0.434\nsamples = 788\nvalue = [251, 537]"] ;
128 -> 154 ;
155 [label="number_of_reviews <= 364.0\ngini = 0.398\nsamples = 558\nvalue = [153, 405]"] ;
154 -> 155 ;
156 [label="gini = 0.469\nsamples = 184\nvalue = [69, 115]"] ;
155 -> 156 ;
157 [label="skincare <= 0.5\ngini = 0.348\nsamples = 374\nvalue = [84, 290]"] ;
155 -> 157 ;
158 [label="number_of_reviews <= 418.5\ngini = 0.39\nsamples = 211\nvalue = [56, 155]"] ;
157 -> 158 ;
159 [label="gini = 0.354\nsamples = 100\nvalue = [23, 77]"] ;
158 -> 159 ;
160 [label="gini = 0.418\nsamples = 111\nvalue = [33, 78]"] ;
158 -> 160 ;
161 [label="gini = 0.285\nsamples = 163\nvalue = [28, 135]"] ;
157 -> 161 ;
162 [label="fragrance <= 0.5\ngini = 0.489\nsamples = 230\nvalue = [98, 132]"] ;
154 -> 162 ;
163 [label="gini = 0.5\nsamples = 121\nvalue = [59, 62]"] ;
162 -> 163 ;
164 [label="gini = 0.46\nsamples = 109\nvalue = [39, 70]"] ;
162 -> 164 ;
165 [label="ordered_before <= 0.5\ngini = 0.477\nsamples = 2037\nvalue = [1239, 798]"] ;
67 -> 165 ;
166 [label="men_fragrance <= 0.5\ngini = 0.391\nsamples = 586\nvalue = [430, 156]"] ;
165 -> 166 ;
167 [label="number_of_reviews <= 583.0\ngini = 0.321\nsamples = 319\nvalue = [255, 64]"] ;
166 -> 167 ;
168 [label="gini = 0.37\nsamples = 184\nvalue = [139, 45]"] ;
167 -> 168 ;
169 [label="gini = 0.242\nsamples = 135\nvalue = [116, 19]"] ;
167 -> 169 ;
170 [label="avg_review_score <= 3.885\ngini = 0.452\nsamples = 267\nvalue = [175, 92]"] ;
166 -> 170 ;
171 [label="gini = 0.487\nsamples = 165\nvalue = [96, 69]"] ;
170 -> 171 ;
172 [label="gini = 0.349\nsamples = 102\nvalue = [79, 23]"] ;
170 -> 172 ;
173 [label="on_sale <= 0.5\ngini = 0.493\nsamples = 1451\nvalue = [809, 642]"] ;
165 -> 173 ;
174 [label="avg_review_score <= 3.903\ngini = 0.446\nsamples = 471\nvalue = [313, 158]"] ;
173 -> 174 ;
175 [label="skincare <= 0.5\ngini = 0.476\nsamples = 253\nvalue = [154, 99]"] ;
174 -> 175 ;
176 [label="gini = 0.437\nsamples = 130\nvalue = [88, 42]"] ;
175 -> 176 ;
177 [label="gini = 0.497\nsamples = 123\nvalue = [66, 57]"] ;
175 -> 177 ;
178 [label="number_of_reviews <= 564.5\ngini = 0.395\nsamples = 218\nvalue = [159, 59]"] ;
174 -> 178 ;
179 [label="gini = 0.448\nsamples = 115\nvalue = [76, 39]"] ;
178 -> 179 ;
180 [label="gini = 0.313\nsamples = 103\nvalue = [83, 20]"] ;
178 -> 180 ;
181 [label="cat_makeup <= 0.5\ngini = 0.5\nsamples = 980\nvalue = [496, 484]"] ;
173 -> 181 ;
182 [label="number_of_reviews <= 595.5\ngini = 0.497\nsamples = 788\nvalue = [423, 365]"] ;
181 -> 182 ;
183 [label="cat_foot <= 0.5\ngini = 0.5\nsamples = 542\nvalue = [272, 270]"] ;
182 -> 183 ;
184 [label="cat_hand <= 0.5\ngini = 0.499\nsamples = 411\nvalue = [215, 196]"] ;
183 -> 184 ;
185 [label="men_fragrance <= 0.5\ngini = 0.492\nsamples = 227\nvalue = [128, 99]"] ;
184 -> 185 ;
186 [label="gini = 0.473\nsamples = 125\nvalue = [77, 48]"] ;
185 -> 186 ;
187 [label="gini = 0.5\nsamples = 102\nvalue = [51, 51]"] ;
185 -> 187 ;
188 [label="gini = 0.499\nsamples = 184\nvalue = [87, 97]"] ;
184 -> 188 ;
189 [label="gini = 0.492\nsamples = 131\nvalue = [57, 74]"] ;
183 -> 189 ;
190 [label="tools <= 0.5\ngini = 0.474\nsamples = 246\nvalue = [151, 95]"] ;
182 -> 190 ;
191 [label="gini = 0.439\nsamples = 129\nvalue = [87, 42]"] ;
190 -> 191 ;
192 [label="gini = 0.496\nsamples = 117\nvalue = [64, 53]"] ;
190 -> 192 ;
193 [label="gini = 0.471\nsamples = 192\nvalue = [73, 119]"] ;
181 -> 193 ;
194 [label="number_of_reviews <= 743.5\ngini = 0.186\nsamples = 5665\nvalue = [5077, 588]"] ;
0 -> 194 [labeldistance=2.5, labelangle=-45, headlabel="False"] ;
195 [label="ordered_before <= 0.5\ngini = 0.271\nsamples = 2779\nvalue = [2329, 450]"] ;
194 -> 195 ;
196 [label="avg_review_score <= 3.981\ngini = 0.136\nsamples = 857\nvalue = [794, 63]"] ;
195 -> 196 ;
197 [label="number_of_reviews <= 686.0\ngini = 0.165\nsamples = 618\nvalue = [562, 56]"] ;
196 -> 197 ;
198 [label="men_fragrance <= 0.5\ngini = 0.218\nsamples = 314\nvalue = [275, 39]"] ;
197 -> 198 ;
199 [label="gini = 0.153\nsamples = 192\nvalue = [176, 16]"] ;
198 -> 199 ;
200 [label="gini = 0.306\nsamples = 122\nvalue = [99, 23]"] ;
198 -> 200 ;
201 [label="number_of_reviews <= 709.5\ngini = 0.106\nsamples = 304\nvalue = [287, 17]"] ;
197 -> 201 ;
202 [label="gini = 0.03\nsamples = 130\nvalue = [128, 2]"] ;
201 -> 202 ;
203 [label="gini = 0.158\nsamples = 174\nvalue = [159, 15]"] ;
201 -> 203 ;
204 [label="skincare <= 0.5\ngini = 0.057\nsamples = 239\nvalue = [232, 7]"] ;
196 -> 204 ;
205 [label="gini = 0.029\nsamples = 137\nvalue = [135, 2]"] ;
204 -> 205 ;
206 [label="gini = 0.093\nsamples = 102\nvalue = [97, 5]"] ;
204 -> 206 ;
207 [label="number_of_reviews <= 676.5\ngini = 0.322\nsamples = 1922\nvalue = [1535, 387]"] ;
195 -> 207 ;
208 [label="number_of_clicks_before <= 5.5\ngini = 0.373\nsamples = 797\nvalue = [599, 198]"] ;
207 -> 208 ;
209 [label="avg_review_score <= 1.865\ngini = 0.354\nsamples = 666\nvalue = [513, 153]"] ;
208 -> 209 ;
210 [label="gini = 0.281\nsamples = 148\nvalue = [123, 25]"] ;
209 -> 210 ;
211 [label="avg_review_score <= 4.17\ngini = 0.372\nsamples = 518\nvalue = [390, 128]"] ;
209 -> 211 ;
212 [label="number_of_clicks_before <= 2.5\ngini = 0.399\nsamples = 381\nvalue = [276, 105]"] ;
211 -> 212 ;
213 [label="avg_review_score <= 2.863\ngini = 0.427\nsamples = 259\nvalue = [179, 80]"] ;
212 -> 213 ;
214 [label="gini = 0.454\nsamples = 109\nvalue = [71, 38]"] ;
213 -> 214 ;
215 [label="gini = 0.403\nsamples = 150\nvalue = [108, 42]"] ;
213 -> 215 ;
216 [label="gini = 0.326\nsamples = 122\nvalue = [97, 25]"] ;
212 -> 216 ;
217 [label="gini = 0.279\nsamples = 137\nvalue = [114, 23]"] ;
211 -> 217 ;
218 [label="gini = 0.451\nsamples = 131\nvalue = [86, 45]"] ;
208 -> 218 ;
219 [label="avg_review_score <= 3.227\ngini = 0.28\nsamples = 1125\nvalue = [936, 189]"] ;
207 -> 219 ;
220 [label="on_sale <= 0.5\ngini = 0.339\nsamples = 602\nvalue = [472, 130]"] ;
219 -> 220 ;
221 [label="gini = 0.263\nsamples = 193\nvalue = [163, 30]"] ;
220 -> 221 ;
222 [label="avg_review_score <= 2.063\ngini = 0.369\nsamples = 409\nvalue = [309, 100]"] ;
220 -> 222 ;
223 [label="foot <= 0.5\ngini = 0.316\nsamples = 244\nvalue = [196, 48]"] ;
222 -> 223 ;
224 [label="gini = 0.359\nsamples = 128\nvalue = [98, 30]"] ;
223 -> 224 ;
225 [label="gini = 0.262\nsamples = 116\nvalue = [98, 18]"] ;
223 -> 225 ;
226 [label="gini = 0.432\nsamples = 165\nvalue = [113, 52]"] ;
222 -> 226 ;
227 [label="avg_review_score <= 4.738\ngini = 0.2\nsamples = 523\nvalue = [464, 59]"] ;
219 -> 227 ;
228 [label="avg_review_score <= 3.73\ngini = 0.236\nsamples = 373\nvalue = [322, 51]"] ;
227 -> 228 ;
229 [label="gini = 0.123\nsamples = 152\nvalue = [142, 10]"] ;
228 -> 229 ;
230 [label="makeup <= 0.5\ngini = 0.302\nsamples = 221\nvalue = [180, 41]"] ;
228 -> 230 ;
231 [label="gini = 0.349\nsamples = 120\nvalue = [93, 27]"] ;
230 -> 231 ;
232 [label="gini = 0.239\nsamples = 101\nvalue = [87, 14]"] ;
230 -> 232 ;
233 [label="gini = 0.101\nsamples = 150\nvalue = [142, 8]"] ;
227 -> 233 ;
234 [label="ordered_before <= 0.5\ngini = 0.091\nsamples = 2886\nvalue = [2748, 138]"] ;
194 -> 234 ;
235 [label="avg_review_score <= 2.422\ngini = 0.045\nsamples = 875\nvalue = [855, 20]"] ;
234 -> 235 ;
236 [label="number_of_reviews <= 817.5\ngini = 0.092\nsamples = 290\nvalue = [276, 14]"] ;
235 -> 236 ;
237 [label="gini = 0.128\nsamples = 160\nvalue = [149, 11]"] ;
236 -> 237 ;
238 [label="gini = 0.045\nsamples = 130\nvalue = [127, 3]"] ;
236 -> 238 ;
239 [label="number_of_reviews <= 776.5\ngini = 0.02\nsamples = 585\nvalue = [579, 6]"] ;
235 -> 239 ;
240 [label="gini = 0.0\nsamples = 159\nvalue = [159, 0]"] ;
239 -> 240 ;
241 [label="hand <= 0.5\ngini = 0.028\nsamples = 426\nvalue = [420, 6]"] ;
239 -> 241 ;
242 [label="avg_review_score <= 4.26\ngini = 0.042\nsamples = 235\nvalue = [230, 5]"] ;
241 -> 242 ;
243 [label="gini = 0.029\nsamples = 135\nvalue = [133, 2]"] ;
242 -> 243 ;
244 [label="gini = 0.058\nsamples = 100\nvalue = [97, 3]"] ;
242 -> 244 ;
245 [label="gini = 0.01\nsamples = 191\nvalue = [190, 1]"] ;
241 -> 245 ;
246 [label="number_of_reviews <= 753.5\ngini = 0.11\nsamples = 2011\nvalue = [1893, 118]"] ;
234 -> 246 ;
247 [label="gini = 0.216\nsamples = 146\nvalue = [128, 18]"] ;
246 -> 247 ;
248 [label="on_sale <= 0.5\ngini = 0.101\nsamples = 1865\nvalue = [1765, 100]"] ;
246 -> 248 ;
249 [label="number_of_clicks_before <= 4.5\ngini = 0.063\nsamples = 767\nvalue = [742, 25]"] ;
248 -> 249 ;
250 [label="avg_review_score <= 3.849\ngini = 0.038\nsamples = 521\nvalue = [511, 10]"] ;
249 -> 250 ;
251 [label="avg_review_score <= 2.063\ngini = 0.067\nsamples = 260\nvalue = [251, 9]"] ;
250 -> 251 ;
252 [label="gini = 0.017\nsamples = 120\nvalue = [119, 1]"] ;
251 -> 252 ;
253 [label="gini = 0.108\nsamples = 140\nvalue = [132, 8]"] ;
251 -> 253 ;
254 [label="tools <= 0.5\ngini = 0.008\nsamples = 261\nvalue = [260, 1]"] ;
250 -> 254 ;
255 [label="gini = 0.0\nsamples = 156\nvalue = [156, 0]"] ;
254 -> 255 ;
256 [label="gini = 0.019\nsamples = 105\nvalue = [104, 1]"] ;
254 -> 256 ;
257 [label="avg_review_score <= 3.674\ngini = 0.115\nsamples = 246\nvalue = [231, 15]"] ;
249 -> 257 ;
258 [label="gini = 0.036\nsamples = 108\nvalue = [106, 2]"] ;
257 -> 258 ;
259 [label="gini = 0.171\nsamples = 138\nvalue = [125, 13]"] ;
257 -> 259 ;
260 [label="avg_review_score <= 1.597\ngini = 0.127\nsamples = 1098\nvalue = [1023, 75]"] ;
248 -> 260 ;
261 [label="gini = 0.2\nsamples = 169\nvalue = [150, 19]"] ;
260 -> 261 ;
262 [label="number_of_clicks_before <= 4.5\ngini = 0.113\nsamples = 929\nvalue = [873, 56]"] ;
260 -> 262 ;
263 [label="number_of_clicks_before <= 1.5\ngini = 0.094\nsamples = 608\nvalue = [578, 30]"] ;
262 -> 263 ;
264 [label="avg_review_score <= 4.069\ngini = 0.13\nsamples = 300\nvalue = [279, 21]"] ;
263 -> 264 ;
265 [label="gini = 0.165\nsamples = 176\nvalue = [160, 16]"] ;
264 -> 265 ;
266 [label="gini = 0.077\nsamples = 124\nvalue = [119, 5]"] ;
264 -> 266 ;
267 [label="hair <= 0.5\ngini = 0.057\nsamples = 308\nvalue = [299, 9]"] ;
263 -> 267 ;
268 [label="gini = 0.086\nsamples = 178\nvalue = [170, 8]"] ;
267 -> 268 ;
269 [label="gini = 0.015\nsamples = 130\nvalue = [129, 1]"] ;
267 -> 269 ;
270 [label="tools <= 0.5\ngini = 0.149\nsamples = 321\nvalue = [295, 26]"] ;
262 -> 270 ;
271 [label="gini = 0.101\nsamples = 169\nvalue = [160, 9]"] ;
270 -> 271 ;
272 [label="gini = 0.199\nsamples = 152\nvalue = [135, 17]"] ;
270 -> 272 ;
}
